digraph Tree {
node [shape=box, style="rounded", color="black", fontname=helvetica] ;
edge [fontname=helvetica] ;
0 [label="ADAS13 <= 0.5\ngini = 0.7\nsamples = 590\nvalue = [324, 298, 296]"] ;
1 [label="MidTemp <= -1.2\ngini = 0.5\nsamples = 355\nvalue = [7, 255, 292]"] ;
0 -> 1 [labeldistance=2.5, labelangle=45, headlabel="True"] ;
2 [label="Ventricles <= -0.6\ngini = 0.4\nsamples = 15\nvalue = [3, 20, 3]"] ;
1 -> 2 ;
3 [label="gini = 0.0\nsamples = 9\nvalue = [0, 17, 0]"] ;
2 -> 3 ;
4 [label="CDRSB <= -0.3\ngini = 0.7\nsamples = 6\nvalue = [3, 3, 3]"] ;
2 -> 4 ;
5 [label="gini = 0.0\nsamples = 1\nvalue = [0, 0, 3]"] ;
4 -> 5 ;
6 [label="ADAS13 <= 0.3\ngini = 0.5\nsamples = 5\nvalue = [3, 3, 0]"] ;
4 -> 6 ;
7 [label="gini = 0.0\nsamples = 3\nvalue = [0, 3, 0]"] ;
6 -> 7 ;
8 [label="gini = 0.0\nsamples = 2\nvalue = [3, 0, 0]"] ;
6 -> 8 ;
9 [label="ADAS13 <= -0.4\ngini = 0.5\nsamples = 340\nvalue = [4, 235, 289]"] ;
1 -> 9 ;
10 [label="RAVLT_immediate <= 0.1\ngini = 0.4\nsamples = 195\nvalue = [0, 91, 221]"] ;
9 -> 10 ;
11 [label="pct_MidTemp <= 0.4\ngini = 0.5\nsamples = 43\nvalue = [0, 32, 39]"] ;
10 -> 11 ;
12 [label="MMSE <= -0.1\ngini = 0.4\nsamples = 37\nvalue = [0, 20, 39]"] ;
11 -> 12 ;
13 [label="WholeBrain <= -0.6\ngini = 0.2\nsamples = 5\nvalue = [0, 10, 1]"] ;
12 -> 13 ;
14 [label="gini = 0.0\nsamples = 1\nvalue = [0, 0, 1]"] ;
13 -> 14 ;
15 [label="gini = 0.0\nsamples = 4\nvalue = [0, 10, 0]"] ;
13 -> 15 ;
16 [label="CDRSB <= -0.6\ngini = 0.3\nsamples = 32\nvalue = [0, 10, 38]"] ;
12 -> 16 ;
17 [label="gini = 0.0\nsamples = 21\nvalue = [0, 0, 28]"] ;
16 -> 17 ;
18 [label="ABETA_UPENNBIOMK9_04_19_17 <= -0.4\ngini = 0.5\nsamples = 11\nvalue = [0, 10, 10]"] ;
16 -> 18 ;
19 [label="gini = 0.0\nsamples = 2\nvalue = [0, 5, 0]"] ;
18 -> 19 ;
20 [label="RAVLT_immediate <= -0.2\ngini = 0.4\nsamples = 9\nvalue = [0, 5, 10]"] ;
18 -> 20 ;
21 [label="pct_Hippocampus <= -0.3\ngini = 0.2\nsamples = 7\nvalue = [0, 1, 10]"] ;
20 -> 21 ;
22 [label="gini = 0.0\nsamples = 1\nvalue = [0, 1, 0]"] ;
21 -> 22 ;
23 [label="gini = 0.0\nsamples = 6\nvalue = [0, 0, 10]"] ;
21 -> 23 ;
24 [label="gini = 0.0\nsamples = 2\nvalue = [0, 4, 0]"] ;
20 -> 24 ;
25 [label="gini = 0.0\nsamples = 6\nvalue = [0, 12, 0]"] ;
11 -> 25 ;
26 [label="AGE <= -1.3\ngini = 0.4\nsamples = 152\nvalue = [0, 59, 182]"] ;
10 -> 26 ;
27 [label="WholeBrain <= 2.0\ngini = 0.1\nsamples = 15\nvalue = [0, 18, 1]"] ;
26 -> 27 ;
28 [label="gini = 0.0\nsamples = 14\nvalue = [0, 18, 0]"] ;
27 -> 28 ;
29 [label="gini = 0.0\nsamples = 1\nvalue = [0, 0, 1]"] ;
27 -> 29 ;
30 [label="CDRSB <= -0.6\ngini = 0.3\nsamples = 137\nvalue = [0, 41, 181]"] ;
26 -> 30 ;
31 [label="gini = 0.0\nsamples = 108\nvalue = [0, 0, 173]"] ;
30 -> 31 ;
32 [label="PTAU_UPENNBIOMK9_04_19_17 <= -0.8\ngini = 0.3\nsamples = 29\nvalue = [0, 41, 8]"] ;
30 -> 32 ;
33 [label="RAVLT_immediate <= 0.8\ngini = 0.5\nsamples = 10\nvalue = [0, 9, 5]"] ;
32 -> 33 ;
34 [label="AGE <= 0.1\ngini = 0.3\nsamples = 5\nvalue = [0, 1, 5]"] ;
33 -> 34 ;
35 [label="gini = 0.0\nsamples = 4\nvalue = [0, 0, 5]"] ;
34 -> 35 ;
36 [label="gini = 0.0\nsamples = 1\nvalue = [0, 1, 0]"] ;
34 -> 36 ;
37 [label="gini = 0.0\nsamples = 5\nvalue = [0, 8, 0]"] ;
33 -> 37 ;
38 [label="ABETA_UPENNBIOMK9_04_19_17 <= -0.6\ngini = 0.2\nsamples = 19\nvalue = [0, 32, 3]"] ;
32 -> 38 ;
39 [label="TAU_UPENNBIOMK9_04_19_17 <= 0.9\ngini = 0.5\nsamples = 4\nvalue = [0, 3, 3]"] ;
38 -> 39 ;
40 [label="gini = 0.0\nsamples = 2\nvalue = [0, 0, 3]"] ;
39 -> 40 ;
41 [label="gini = 0.0\nsamples = 2\nvalue = [0, 3, 0]"] ;
39 -> 41 ;
42 [label="gini = 0.0\nsamples = 15\nvalue = [0, 29, 0]"] ;
38 -> 42 ;
43 [label="pct_Hippocampus <= 0.4\ngini = 0.5\nsamples = 145\nvalue = [4, 144, 68]"] ;
9 -> 43 ;
44 [label="FDG <= 1.6\ngini = 0.4\nsamples = 133\nvalue = [4, 140, 53]"] ;
43 -> 44 ;
45 [label="Hippocampus <= -0.3\ngini = 0.4\nsamples = 127\nvalue = [4, 138, 47]"] ;
44 -> 45 ;
46 [label="ADAS13 <= 0.4\ngini = 0.3\nsamples = 41\nvalue = [4, 51, 6]"] ;
45 -> 46 ;
47 [label="pct_Hippocampus <= 0.2\ngini = 0.2\nsamples = 34\nvalue = [0, 45, 6]"] ;
46 -> 47 ;
48 [label="MMSE <= 0.1\ngini = 0.5\nsamples = 9\nvalue = [0, 7, 4]"] ;
47 -> 48 ;
49 [label="gini = 0.0\nsamples = 4\nvalue = [0, 5, 0]"] ;
48 -> 49 ;
50 [label="pct_Entorhinal <= 0.7\ngini = 0.4\nsamples = 5\nvalue = [0, 2, 4]"] ;
48 -> 50 ;
51 [label="gini = 0.0\nsamples = 3\nvalue = [0, 0, 4]"] ;
50 -> 51 ;
52 [label="gini = 0.0\nsamples = 2\nvalue = [0, 2, 0]"] ;
50 -> 52 ;
53 [label="AGE <= -0.2\ngini = 0.1\nsamples = 25\nvalue = [0, 38, 2]"] ;
47 -> 53 ;
54 [label="TAU_UPENNBIOMK9_04_19_17 <= -0.1\ngini = 0.5\nsamples = 4\nvalue = [0, 3, 2]"] ;
53 -> 54 ;
55 [label="gini = 0.0\nsamples = 2\nvalue = [0, 0, 2]"] ;
54 -> 55 ;
56 [label="gini = 0.0\nsamples = 2\nvalue = [0, 3, 0]"] ;
54 -> 56 ;
57 [label="gini = 0.0\nsamples = 21\nvalue = [0, 35, 0]"] ;
53 -> 57 ;
58 [label="RAVLT_immediate <= -0.8\ngini = 0.5\nsamples = 7\nvalue = [4, 6, 0]"] ;
46 -> 58 ;
59 [label="gini = 0.0\nsamples = 2\nvalue = [0, 4, 0]"] ;
58 -> 59 ;
60 [label="pct_Ventricles <= 0.3\ngini = 0.4\nsamples = 5\nvalue = [4, 2, 0]"] ;
58 -> 60 ;
61 [label="gini = 0.0\nsamples = 2\nvalue = [0, 2, 0]"] ;
60 -> 61 ;
62 [label="gini = 0.0\nsamples = 3\nvalue = [4, 0, 0]"] ;
60 -> 62 ;
63 [label="ABETA_UPENNBIOMK9_04_19_17 <= 0.3\ngini = 0.4\nsamples = 86\nvalue = [0, 87, 41]"] ;
45 -> 63 ;
64 [label="pct_WholeBrain <= 0.6\ngini = 0.3\nsamples = 58\nvalue = [0, 72, 20]"] ;
63 -> 64 ;
65 [label="pct_Entorhinal <= 1.2\ngini = 0.3\nsamples = 57\nvalue = [0, 72, 18]"] ;
64 -> 65 ;
66 [label="CDRSB <= -0.6\ngini = 0.3\nsamples = 56\nvalue = [0, 72, 16]"] ;
65 -> 66 ;
67 [label="gini = 0.0\nsamples = 13\nvalue = [0, 0, 15]"] ;
66 -> 67 ;
68 [label="PTRACCAT <= -1.3\ngini = 0.0\nsamples = 43\nvalue = [0, 72, 1]"] ;
66 -> 68 ;
69 [label="PTGENDER <= -0.0\ngini = 0.5\nsamples = 2\nvalue = [0, 1, 1]"] ;
68 -> 69 ;
70 [label="gini = 0.0\nsamples = 1\nvalue = [0, 1, 0]"] ;
69 -> 70 ;
71 [label="gini = 0.0\nsamples = 1\nvalue = [0, 0, 1]"] ;
69 -> 71 ;
72 [label="gini = 0.0\nsamples = 41\nvalue = [0, 71, 0]"] ;
68 -> 72 ;
73 [label="gini = 0.0\nsamples = 1\nvalue = [0, 0, 2]"] ;
65 -> 73 ;
74 [label="gini = 0.0\nsamples = 1\nvalue = [0, 0, 2]"] ;
64 -> 74 ;
75 [label="MMSE <= 0.7\ngini = 0.5\nsamples = 28\nvalue = [0, 15, 21]"] ;
63 -> 75 ;
76 [label="CDRSB <= -0.6\ngini = 0.5\nsamples = 20\nvalue = [0, 14, 13]"] ;
75 -> 76 ;
77 [label="gini = 0.0\nsamples = 10\nvalue = [0, 0, 13]"] ;
76 -> 77 ;
78 [label="gini = 0.0\nsamples = 10\nvalue = [0, 14, 0]"] ;
76 -> 78 ;
79 [label="Ventricles <= 0.4\ngini = 0.2\nsamples = 8\nvalue = [0, 1, 8]"] ;
75 -> 79 ;
80 [label="gini = 0.0\nsamples = 5\nvalue = [0, 0, 6]"] ;
79 -> 80 ;
81 [label="Entorhinal <= 1.1\ngini = 0.4\nsamples = 3\nvalue = [0, 1, 2]"] ;
79 -> 81 ;
82 [label="gini = 0.0\nsamples = 2\nvalue = [0, 0, 2]"] ;
81 -> 82 ;
83 [label="gini = 0.0\nsamples = 1\nvalue = [0, 1, 0]"] ;
81 -> 83 ;
84 [label="MidTemp <= 1.3\ngini = 0.4\nsamples = 6\nvalue = [0, 2, 6]"] ;
44 -> 84 ;
85 [label="gini = 0.0\nsamples = 4\nvalue = [0, 0, 6]"] ;
84 -> 85 ;
86 [label="gini = 0.0\nsamples = 2\nvalue = [0, 2, 0]"] ;
84 -> 86 ;
87 [label="FDG <= -0.2\ngini = 0.3\nsamples = 12\nvalue = [0, 4, 15]"] ;
43 -> 87 ;
88 [label="gini = 0.0\nsamples = 2\nvalue = [0, 2, 0]"] ;
87 -> 88 ;
89 [label="CDRSB <= -0.5\ngini = 0.2\nsamples = 10\nvalue = [0, 2, 15]"] ;
87 -> 89 ;
90 [label="gini = 0.0\nsamples = 8\nvalue = [0, 0, 15]"] ;
89 -> 90 ;
91 [label="gini = 0.0\nsamples = 2\nvalue = [0, 2, 0]"] ;
89 -> 91 ;
92 [label="CDRSB <= 0.5\ngini = 0.2\nsamples = 235\nvalue = [317, 43, 4]"] ;
0 -> 92 [labeldistance=2.5, labelangle=-45, headlabel="False"] ;
93 [label="ADAS11 <= 0.0\ngini = 0.5\nsamples = 28\nvalue = [7, 25, 4]"] ;
92 -> 93 ;
94 [label="gini = 0.0\nsamples = 2\nvalue = [3, 0, 0]"] ;
93 -> 94 ;
95 [label="MidTemp <= -1.1\ngini = 0.4\nsamples = 26\nvalue = [4, 25, 4]"] ;
93 -> 95 ;
96 [label="PTGENDER <= -0.0\ngini = 0.7\nsamples = 7\nvalue = [4, 3, 3]"] ;
95 -> 96 ;
97 [label="FDG <= 0.6\ngini = 0.5\nsamples = 4\nvalue = [0, 3, 3]"] ;
96 -> 97 ;
98 [label="gini = 0.0\nsamples = 3\nvalue = [0, 3, 0]"] ;
97 -> 98 ;
99 [label="gini = 0.0\nsamples = 1\nvalue = [0, 0, 3]"] ;
97 -> 99 ;
100 [label="gini = 0.0\nsamples = 3\nvalue = [4, 0, 0]"] ;
96 -> 100 ;
101 [label="PTETHCAT <= -2.4\ngini = 0.1\nsamples = 19\nvalue = [0, 22, 1]"] ;
95 -> 101 ;
102 [label="gini = 0.0\nsamples = 1\nvalue = [0, 0, 1]"] ;
101 -> 102 ;
103 [label="gini = 0.0\nsamples = 18\nvalue = [0, 22, 0]"] ;
101 -> 103 ;
104 [label="MMSE <= -0.4\ngini = 0.1\nsamples = 207\nvalue = [310, 18, 0]"] ;
92 -> 104 ;
105 [label="pct_Ventricles <= -0.9\ngini = 0.1\nsamples = 202\nvalue = [310, 10, 0]"] ;
104 -> 105 ;
106 [label="gini = 0.0\nsamples = 1\nvalue = [0, 1, 0]"] ;
105 -> 106 ;
107 [label="Ventricles <= -1.1\ngini = 0.1\nsamples = 201\nvalue = [310, 9, 0]"] ;
105 -> 107 ;
108 [label="gini = 0.0\nsamples = 1\nvalue = [0, 1, 0]"] ;
107 -> 108 ;
109 [label="FDG <= -0.4\ngini = 0.0\nsamples = 200\nvalue = [310, 8, 0]"] ;
107 -> 109 ;
110 [label="PTAU_UPENNBIOMK9_04_19_17 <= 1.7\ngini = 0.0\nsamples = 190\nvalue = [300, 5, 0]"] ;
109 -> 110 ;
111 [label="pct_Ventricles <= 6.5\ngini = 0.0\nsamples = 155\nvalue = [252, 2, 0]"] ;
110 -> 111 ;
112 [label="CDRSB <= 1.3\ngini = 0.0\nsamples = 153\nvalue = [249, 1, 0]"] ;
111 -> 112 ;
113 [label="PTAU_UPENNBIOMK9_04_19_17 <= 0.2\ngini = 0.0\nsamples = 40\nvalue = [71, 1, 0]"] ;
112 -> 113 ;
114 [label="RAVLT_immediate <= -1.3\ngini = 0.2\nsamples = 4\nvalue = [6, 1, 0]"] ;
113 -> 114 ;
115 [label="gini = 0.0\nsamples = 3\nvalue = [6, 0, 0]"] ;
114 -> 115 ;
116 [label="gini = 0.0\nsamples = 1\nvalue = [0, 1, 0]"] ;
114 -> 116 ;
117 [label="gini = 0.0\nsamples = 36\nvalue = [65, 0, 0]"] ;
113 -> 117 ;
118 [label="gini = 0.0\nsamples = 113\nvalue = [178, 0, 0]"] ;
112 -> 118 ;
119 [label="MMSE <= -4.0\ngini = 0.4\nsamples = 2\nvalue = [3, 1, 0]"] ;
111 -> 119 ;
120 [label="gini = 0.0\nsamples = 1\nvalue = [3, 0, 0]"] ;
119 -> 120 ;
121 [label="gini = 0.0\nsamples = 1\nvalue = [0, 1, 0]"] ;
119 -> 121 ;
122 [label="PTAU_UPENNBIOMK9_04_19_17 <= 2.0\ngini = 0.1\nsamples = 35\nvalue = [48, 3, 0]"] ;
110 -> 122 ;
123 [label="gini = 0.0\nsamples = 2\nvalue = [0, 2, 0]"] ;
122 -> 123 ;
124 [label="pct_Hippocampus <= -2.2\ngini = 0.0\nsamples = 33\nvalue = [48, 1, 0]"] ;
122 -> 124 ;
125 [label="Entorhinal <= -1.0\ngini = 0.4\nsamples = 3\nvalue = [3, 1, 0]"] ;
124 -> 125 ;
126 [label="gini = 0.0\nsamples = 2\nvalue = [3, 0, 0]"] ;
125 -> 126 ;
127 [label="gini = 0.0\nsamples = 1\nvalue = [0, 1, 0]"] ;
125 -> 127 ;
128 [label="gini = 0.0\nsamples = 30\nvalue = [45, 0, 0]"] ;
124 -> 128 ;
129 [label="TAU_UPENNBIOMK9_04_19_17 <= 0.7\ngini = 0.4\nsamples = 10\nvalue = [10, 3, 0]"] ;
109 -> 129 ;
130 [label="PTEDUCAT <= 0.3\ngini = 0.5\nsamples = 4\nvalue = [2, 3, 0]"] ;
129 -> 130 ;
131 [label="gini = 0.0\nsamples = 2\nvalue = [0, 3, 0]"] ;
130 -> 131 ;
132 [label="gini = 0.0\nsamples = 2\nvalue = [2, 0, 0]"] ;
130 -> 132 ;
133 [label="gini = 0.0\nsamples = 6\nvalue = [8, 0, 0]"] ;
129 -> 133 ;
134 [label="gini = 0.0\nsamples = 5\nvalue = [0, 8, 0]"] ;
104 -> 134 ;
}